10 10
story 0.0096228 -0.013218 -0.023083 0.0073148 -0.0029509 0.0077342 -0.012651 -0.032121 -0.0067654 0.036179 
- -0.0148 0.030614 0.09231 0.071605 -0.041187 -0.017077 0.0029713 0.057969 0.0088573 -0.08128 
</s> -0.013558 0.068999 0.054572 -0.06162 0.056081 -0.063737 0.015821 -0.037161 -0.0176 0.098455 
second 0.02195 -0.042479 -0.010368 -0.026967 -0.030741 0.020529 0.034708 -0.029615 -0.0049028 -0.013874 
first -0.00025197 0.0073133 0.011467 0.0055698 0.0038285 0.0010577 0.018865 -0.0091178 -0.00021181 0.0066543 
bed -0.042109 0.035393 -0.042585 0.026042 -0.0077816 -0.032139 -0.010789 0.031883 0.0083442 -0.013439 
description 0.015306 0.0036832 0.010503 0.0010028 -0.011794 0.0052639 -0.0027452 0.015197 0.016277 -0.0074108 
testing 0.0081695 0.0050771 0.022528 -0.026759 0.02017 0.0080704 0.00090223 -0.01383 -0.0084689 -0.00069941 
updated 0.0067642 0.029878 0.00069141 0.0091966 -0.010916 0.025221 0.0034444 -0.010412 0.0050525 -0.018395 
development -0.010842 0.011524 0.010243 -0.010724 -0.018242 0.013636 -0.011783 0.013125 -0.012575 -0.014447 
